digraph Tree {
node [shape=box, style="filled, rounded", color="black", fontname=helvetica] ;
edge [fontname=helvetica] ;
0 [label="DOB <= 0.597\ngini = 0.492\nsamples = 2043\nvalue = [1418, 1816]", fillcolor="#d4eaf9"] ;
1 [label="SApM1 <= 0.12\ngini = 0.429\nsamples = 1025\nvalue = [1127, 511]", fillcolor="#f1ba93"] ;
0 -> 1 [labeldistance=2.5, labelangle=45, headlabel="True"] ;
2 [label="SLpM <= 0.186\ngini = 0.318\nsamples = 518\nvalue = [662, 164]", fillcolor="#eba06a"] ;
1 -> 2 ;
3 [label="REACH <= 0.365\ngini = 0.25\nsamples = 327\nvalue = [450, 77]", fillcolor="#e9975b"] ;
2 -> 3 ;
4 [label="gini = 0.486\nsamples = 24\nvalue = [21, 15]", fillcolor="#f8dbc6"] ;
3 -> 4 ;
5 [label="SubAvg <= 0.061\ngini = 0.221\nsamples = 303\nvalue = [429, 62]", fillcolor="#e99356"] ;
3 -> 5 ;
6 [label="StrAcc1 <= 0.464\ngini = 0.396\nsamples = 86\nvalue = [107, 40]", fillcolor="#efb083"] ;
5 -> 6 ;
7 [label="gini = 0.45\nsamples = 20\nvalue = [13, 25]", fillcolor="#a0d0f3"] ;
6 -> 7 ;
8 [label="TDAcc <= 0.775\ngini = 0.237\nsamples = 66\nvalue = [94, 15]", fillcolor="#e99559"] ;
6 -> 8 ;
9 [label="StrDef <= 0.559\ngini = 0.188\nsamples = 64\nvalue = [94, 11]", fillcolor="#e89050"] ;
8 -> 9 ;
10 [label="TDDef <= 0.07\ngini = 0.036\nsamples = 31\nvalue = [53, 1]", fillcolor="#e5833d"] ;
9 -> 10 ;
11 [label="gini = 0.375\nsamples = 3\nvalue = [3, 1]", fillcolor="#eeab7b"] ;
10 -> 11 ;
12 [label="gini = 0.0\nsamples = 28\nvalue = [50, 0]", fillcolor="#e58139"] ;
10 -> 12 ;
13 [label="TDDef <= 0.595\ngini = 0.315\nsamples = 33\nvalue = [41, 10]", fillcolor="#eba069"] ;
9 -> 13 ;
14 [label="gini = 0.278\nsamples = 4\nvalue = [1, 5]", fillcolor="#61b1ea"] ;
13 -> 14 ;
15 [label="SubAvg1 <= 0.003\ngini = 0.198\nsamples = 29\nvalue = [40, 5]", fillcolor="#e89152"] ;
13 -> 15 ;
16 [label="gini = 0.5\nsamples = 2\nvalue = [1, 1]", fillcolor="#ffffff"] ;
15 -> 16 ;
17 [label="TDAcc1 <= 0.525\ngini = 0.169\nsamples = 27\nvalue = [39, 4]", fillcolor="#e88e4d"] ;
15 -> 17 ;
18 [label="gini = 0.051\nsamples = 23\nvalue = [37, 1]", fillcolor="#e6843e"] ;
17 -> 18 ;
19 [label="gini = 0.48\nsamples = 4\nvalue = [2, 3]", fillcolor="#bddef6"] ;
17 -> 19 ;
20 [label="gini = 0.0\nsamples = 2\nvalue = [0, 4]", fillcolor="#399de5"] ;
8 -> 20 ;
21 [label="TDDef <= 0.615\ngini = 0.12\nsamples = 217\nvalue = [322, 22]", fillcolor="#e78a47"] ;
5 -> 21 ;
22 [label="DOB1 <= 0.792\ngini = 0.058\nsamples = 150\nvalue = [228, 7]", fillcolor="#e6853f"] ;
21 -> 22 ;
23 [label="TDDef <= 0.495\ngini = 0.05\nsamples = 149\nvalue = [228, 6]", fillcolor="#e6843e"] ;
22 -> 23 ;
24 [label="gini = 0.0\nsamples = 87\nvalue = [135, 0]", fillcolor="#e58139"] ;
23 -> 24 ;
25 [label="TDAvg <= 0.125\ngini = 0.114\nsamples = 62\nvalue = [93, 6]", fillcolor="#e78946"] ;
23 -> 25 ;
26 [label="gini = 0.311\nsamples = 19\nvalue = [21, 5]", fillcolor="#eb9f68"] ;
25 -> 26 ;
27 [label="SLpM <= 0.174\ngini = 0.027\nsamples = 43\nvalue = [72, 1]", fillcolor="#e5833c"] ;
25 -> 27 ;
28 [label="gini = 0.0\nsamples = 41\nvalue = [68, 0]", fillcolor="#e58139"] ;
27 -> 28 ;
29 [label="gini = 0.32\nsamples = 2\nvalue = [4, 1]", fillcolor="#eca06a"] ;
27 -> 29 ;
30 [label="gini = 0.0\nsamples = 1\nvalue = [0, 1]", fillcolor="#399de5"] ;
22 -> 30 ;
31 [label="DOB1 <= 0.681\ngini = 0.237\nsamples = 67\nvalue = [94, 15]", fillcolor="#e99559"] ;
21 -> 31 ;
32 [label="SLpM1 <= 0.345\ngini = 0.189\nsamples = 63\nvalue = [93, 11]", fillcolor="#e89050"] ;
31 -> 32 ;
33 [label="REACH <= 0.827\ngini = 0.12\nsamples = 58\nvalue = [88, 6]", fillcolor="#e78a46"] ;
32 -> 33 ;
34 [label="HEIGHT1 <= 0.775\ngini = 0.064\nsamples = 55\nvalue = [87, 3]", fillcolor="#e68540"] ;
33 -> 34 ;
35 [label="DOB1 <= 0.625\ngini = 0.044\nsamples = 53\nvalue = [86, 2]", fillcolor="#e6843e"] ;
34 -> 35 ;
36 [label="gini = 0.0\nsamples = 49\nvalue = [81, 0]", fillcolor="#e58139"] ;
35 -> 36 ;
37 [label="gini = 0.408\nsamples = 4\nvalue = [5, 2]", fillcolor="#efb388"] ;
35 -> 37 ;
38 [label="gini = 0.5\nsamples = 2\nvalue = [1, 1]", fillcolor="#ffffff"] ;
34 -> 38 ;
39 [label="gini = 0.375\nsamples = 3\nvalue = [1, 3]", fillcolor="#7bbeee"] ;
33 -> 39 ;
40 [label="gini = 0.5\nsamples = 5\nvalue = [5, 5]", fillcolor="#ffffff"] ;
32 -> 40 ;
41 [label="gini = 0.32\nsamples = 4\nvalue = [1, 4]", fillcolor="#6ab6ec"] ;
31 -> 41 ;
42 [label="TDDef <= 0.635\ngini = 0.413\nsamples = 191\nvalue = [212, 87]", fillcolor="#f0b58a"] ;
2 -> 42 ;
43 [label="DOB1 <= 0.708\ngini = 0.294\nsamples = 108\nvalue = [147, 32]", fillcolor="#eb9c64"] ;
42 -> 43 ;
44 [label="SApM <= 0.297\ngini = 0.235\nsamples = 100\nvalue = [146, 23]", fillcolor="#e99558"] ;
43 -> 44 ;
45 [label="StrAcc1 <= 0.681\ngini = 0.171\nsamples = 80\nvalue = [125, 13]", fillcolor="#e88e4e"] ;
44 -> 45 ;
46 [label="SLpM <= 0.188\ngini = 0.131\nsamples = 72\nvalue = [119, 9]", fillcolor="#e78b48"] ;
45 -> 46 ;
47 [label="gini = 0.48\nsamples = 3\nvalue = [2, 3]", fillcolor="#bddef6"] ;
46 -> 47 ;
48 [label="REACH1 <= 0.396\ngini = 0.093\nsamples = 69\nvalue = [117, 6]", fillcolor="#e68743"] ;
46 -> 48 ;
49 [label="gini = 0.32\nsamples = 8\nvalue = [12, 3]", fillcolor="#eca06a"] ;
48 -> 49 ;
50 [label="StrDef <= 0.72\ngini = 0.054\nsamples = 61\nvalue = [105, 3]", fillcolor="#e6853f"] ;
48 -> 50 ;
51 [label="gini = 0.0\nsamples = 54\nvalue = [100, 0]", fillcolor="#e58139"] ;
50 -> 51 ;
52 [label="gini = 0.469\nsamples = 7\nvalue = [5, 3]", fillcolor="#f5cdb0"] ;
50 -> 52 ;
53 [label="gini = 0.48\nsamples = 8\nvalue = [6, 4]", fillcolor="#f6d5bd"] ;
45 -> 53 ;
54 [label="gini = 0.437\nsamples = 20\nvalue = [21, 10]", fillcolor="#f1bd97"] ;
44 -> 54 ;
55 [label="gini = 0.18\nsamples = 8\nvalue = [1, 9]", fillcolor="#4fa8e8"] ;
43 -> 55 ;
56 [label="SubAvg1 <= 0.05\ngini = 0.497\nsamples = 83\nvalue = [65, 55]", fillcolor="#fbece1"] ;
42 -> 56 ;
57 [label="DOB <= 0.542\ngini = 0.499\nsamples = 75\nvalue = [51, 55]", fillcolor="#f1f8fd"] ;
56 -> 57 ;
58 [label="DOB1 <= 0.736\ngini = 0.389\nsamples = 40\nvalue = [39, 14]", fillcolor="#eeae80"] ;
57 -> 58 ;
59 [label="SApM <= 0.22\ngini = 0.343\nsamples = 38\nvalue = [39, 11]", fillcolor="#eca571"] ;
58 -> 59 ;
60 [label="gini = 0.105\nsamples = 15\nvalue = [17, 1]", fillcolor="#e78845"] ;
59 -> 60 ;
61 [label="gini = 0.43\nsamples = 23\nvalue = [22, 10]", fillcolor="#f1ba93"] ;
59 -> 61 ;
62 [label="gini = 0.0\nsamples = 2\nvalue = [0, 3]", fillcolor="#399de5"] ;
58 -> 62 ;
63 [label="DOB1 <= 0.542\ngini = 0.35\nsamples = 35\nvalue = [12, 41]", fillcolor="#73baed"] ;
57 -> 63 ;
64 [label="gini = 0.492\nsamples = 13\nvalue = [9, 7]", fillcolor="#f9e3d3"] ;
63 -> 64 ;
65 [label="gini = 0.149\nsamples = 22\nvalue = [3, 34]", fillcolor="#4aa6e7"] ;
63 -> 65 ;
66 [label="gini = 0.0\nsamples = 8\nvalue = [14, 0]", fillcolor="#e58139"] ;
56 -> 66 ;
67 [label="DOB1 <= 0.681\ngini = 0.489\nsamples = 507\nvalue = [465, 347]", fillcolor="#f8dfcd"] ;
1 -> 67 ;
68 [label="TDAvg1 <= 0.076\ngini = 0.45\nsamples = 421\nvalue = [443, 230]", fillcolor="#f2c2a0"] ;
67 -> 68 ;
69 [label="HEIGHT <= 0.725\ngini = 0.5\nsamples = 110\nvalue = [82, 79]", fillcolor="#fefaf8"] ;
68 -> 69 ;
70 [label="WEIGHT1 <= 0.167\ngini = 0.49\nsamples = 91\nvalue = [73, 55]", fillcolor="#f9e0ce"] ;
69 -> 70 ;
71 [label="gini = 0.34\nsamples = 14\nvalue = [5, 18]", fillcolor="#70b8ec"] ;
70 -> 71 ;
72 [label="REACH <= 0.481\ngini = 0.456\nsamples = 77\nvalue = [68, 37]", fillcolor="#f3c6a5"] ;
70 -> 72 ;
73 [label="gini = 0.423\nsamples = 20\nvalue = [7, 16]", fillcolor="#90c8f0"] ;
72 -> 73 ;
74 [label="STANCE1 <= 0.5\ngini = 0.381\nsamples = 57\nvalue = [61, 21]", fillcolor="#eeac7d"] ;
72 -> 74 ;
75 [label="TDDef1 <= 0.355\ngini = 0.285\nsamples = 44\nvalue = [53, 11]", fillcolor="#ea9b62"] ;
74 -> 75 ;
76 [label="gini = 0.5\nsamples = 7\nvalue = [5, 5]", fillcolor="#ffffff"] ;
75 -> 76 ;
77 [label="StrAcc1 <= 0.59\ngini = 0.198\nsamples = 37\nvalue = [48, 6]", fillcolor="#e89152"] ;
75 -> 77 ;
78 [label="SLpM <= 0.309\ngini = 0.145\nsamples = 34\nvalue = [47, 4]", fillcolor="#e78c4a"] ;
77 -> 78 ;
79 [label="StrDef <= 0.534\ngini = 0.113\nsamples = 33\nvalue = [47, 3]", fillcolor="#e78946"] ;
78 -> 79 ;
80 [label="gini = 0.337\nsamples = 12\nvalue = [11, 3]", fillcolor="#eca36f"] ;
79 -> 80 ;
81 [label="gini = 0.0\nsamples = 21\nvalue = [36, 0]", fillcolor="#e58139"] ;
79 -> 81 ;
82 [label="gini = 0.0\nsamples = 1\nvalue = [0, 1]", fillcolor="#399de5"] ;
78 -> 82 ;
83 [label="gini = 0.444\nsamples = 3\nvalue = [1, 2]", fillcolor="#9ccef2"] ;
77 -> 83 ;
84 [label="gini = 0.494\nsamples = 13\nvalue = [8, 10]", fillcolor="#d7ebfa"] ;
74 -> 84 ;
85 [label="gini = 0.397\nsamples = 19\nvalue = [9, 24]", fillcolor="#83c2ef"] ;
69 -> 85 ;
86 [label="TDDef1 <= 0.635\ngini = 0.416\nsamples = 311\nvalue = [361, 151]", fillcolor="#f0b68c"] ;
68 -> 86 ;
87 [label="DOB1 <= 0.486\ngini = 0.332\nsamples = 175\nvalue = [225, 60]", fillcolor="#eca36e"] ;
86 -> 87 ;
88 [label="WEIGHT <= 0.917\ngini = 0.129\nsamples = 59\nvalue = [94, 7]", fillcolor="#e78a48"] ;
87 -> 88 ;
89 [label="SLpM1 <= 0.348\ngini = 0.096\nsamples = 57\nvalue = [94, 5]", fillcolor="#e68844"] ;
88 -> 89 ;
90 [label="HEIGHT1 <= 0.325\ngini = 0.042\nsamples = 53\nvalue = [92, 2]", fillcolor="#e6843d"] ;
89 -> 90 ;
91 [label="gini = 0.188\nsamples = 12\nvalue = [17, 2]", fillcolor="#e89050"] ;
90 -> 91 ;
92 [label="gini = 0.0\nsamples = 41\nvalue = [75, 0]", fillcolor="#e58139"] ;
90 -> 92 ;
93 [label="gini = 0.48\nsamples = 4\nvalue = [2, 3]", fillcolor="#bddef6"] ;
89 -> 93 ;
94 [label="gini = 0.0\nsamples = 2\nvalue = [0, 2]", fillcolor="#399de5"] ;
88 -> 94 ;
95 [label="DOB <= 0.514\ngini = 0.41\nsamples = 116\nvalue = [131, 53]", fillcolor="#f0b489"] ;
87 -> 95 ;
96 [label="WEIGHT1 <= 0.167\ngini = 0.251\nsamples = 63\nvalue = [81, 14]", fillcolor="#e9975b"] ;
95 -> 96 ;
97 [label="gini = 0.494\nsamples = 6\nvalue = [5, 4]", fillcolor="#fae6d7"] ;
96 -> 97 ;
98 [label="HEIGHT1 <= 0.55\ngini = 0.206\nsamples = 57\nvalue = [76, 10]", fillcolor="#e89253"] ;
96 -> 98 ;
99 [label="SApM1 <= 0.125\ngini = 0.038\nsamples = 31\nvalue = [51, 1]", fillcolor="#e6833d"] ;
98 -> 99 ;
100 [label="gini = 0.245\nsamples = 4\nvalue = [6, 1]", fillcolor="#e9965a"] ;
99 -> 100 ;
101 [label="gini = 0.0\nsamples = 27\nvalue = [45, 0]", fillcolor="#e58139"] ;
99 -> 101 ;
102 [label="SApM1 <= 0.17\ngini = 0.389\nsamples = 26\nvalue = [25, 9]", fillcolor="#eeae80"] ;
98 -> 102 ;
103 [label="gini = 0.312\nsamples = 24\nvalue = [25, 6]", fillcolor="#eb9f69"] ;
102 -> 103 ;
104 [label="gini = 0.0\nsamples = 2\nvalue = [0, 3]", fillcolor="#399de5"] ;
102 -> 104 ;
105 [label="HEIGHT1 <= 0.55\ngini = 0.492\nsamples = 53\nvalue = [50, 39]", fillcolor="#f9e3d3"] ;
95 -> 105 ;
106 [label="StrAcc1 <= 0.464\ngini = 0.5\nsamples = 42\nvalue = [36, 37]", fillcolor="#fafcfe"] ;
105 -> 106 ;
107 [label="gini = 0.308\nsamples = 11\nvalue = [4, 17]", fillcolor="#68b4eb"] ;
106 -> 107 ;
108 [label="SLpM1 <= 0.276\ngini = 0.473\nsamples = 31\nvalue = [32, 20]", fillcolor="#f5d0b5"] ;
106 -> 108 ;
109 [label="gini = 0.473\nsamples = 14\nvalue = [10, 16]", fillcolor="#b5daf5"] ;
108 -> 109 ;
110 [label="gini = 0.26\nsamples = 17\nvalue = [22, 4]", fillcolor="#ea985d"] ;
108 -> 110 ;
111 [label="gini = 0.219\nsamples = 11\nvalue = [14, 2]", fillcolor="#e99355"] ;
105 -> 111 ;
112 [label="TDAcc <= 0.255\ngini = 0.48\nsamples = 136\nvalue = [136, 91]", fillcolor="#f6d5bd"] ;
86 -> 112 ;
113 [label="gini = 0.219\nsamples = 17\nvalue = [28, 4]", fillcolor="#e99355"] ;
112 -> 113 ;
114 [label="HEIGHT1 <= 0.375\ngini = 0.494\nsamples = 119\nvalue = [108, 87]", fillcolor="#fae7d9"] ;
112 -> 114 ;
115 [label="TDDef1 <= 0.885\ngini = 0.439\nsamples = 30\nvalue = [14, 29]", fillcolor="#99ccf2"] ;
114 -> 115 ;
116 [label="SLpM <= 0.225\ngini = 0.339\nsamples = 26\nvalue = [8, 29]", fillcolor="#70b8ec"] ;
115 -> 116 ;
117 [label="gini = 0.142\nsamples = 17\nvalue = [2, 24]", fillcolor="#49a5e7"] ;
116 -> 117 ;
118 [label="gini = 0.496\nsamples = 9\nvalue = [6, 5]", fillcolor="#fbeade"] ;
116 -> 118 ;
119 [label="gini = 0.0\nsamples = 4\nvalue = [6, 0]", fillcolor="#e58139"] ;
115 -> 119 ;
120 [label="StrAcc <= 0.538\ngini = 0.472\nsamples = 89\nvalue = [94, 58]", fillcolor="#f5cfb3"] ;
114 -> 120 ;
121 [label="TDAvg1 <= 0.153\ngini = 0.366\nsamples = 52\nvalue = [63, 20]", fillcolor="#eda978"] ;
120 -> 121 ;
122 [label="gini = 0.494\nsamples = 24\nvalue = [20, 16]", fillcolor="#fae6d7"] ;
121 -> 122 ;
123 [label="HEIGHT <= 0.825\ngini = 0.156\nsamples = 28\nvalue = [43, 4]", fillcolor="#e78d4b"] ;
121 -> 123 ;
124 [label="SubAvg <= 0.223\ngini = 0.122\nsamples = 27\nvalue = [43, 3]", fillcolor="#e78a47"] ;
123 -> 124 ;
125 [label="REACH1 <= 0.438\ngini = 0.045\nsamples = 25\nvalue = [42, 1]", fillcolor="#e6843e"] ;
124 -> 125 ;
126 [label="gini = 0.444\nsamples = 3\nvalue = [2, 1]", fillcolor="#f2c09c"] ;
125 -> 126 ;
127 [label="gini = 0.0\nsamples = 22\nvalue = [40, 0]", fillcolor="#e58139"] ;
125 -> 127 ;
128 [label="gini = 0.444\nsamples = 2\nvalue = [1, 2]", fillcolor="#9ccef2"] ;
124 -> 128 ;
129 [label="gini = 0.0\nsamples = 1\nvalue = [0, 1]", fillcolor="#399de5"] ;
123 -> 129 ;
130 [label="TDAcc1 <= 0.405\ngini = 0.495\nsamples = 37\nvalue = [31, 38]", fillcolor="#dbedfa"] ;
120 -> 130 ;
131 [label="gini = 0.381\nsamples = 23\nvalue = [11, 32]", fillcolor="#7dbfee"] ;
130 -> 131 ;
132 [label="gini = 0.355\nsamples = 14\nvalue = [20, 6]", fillcolor="#eda774"] ;
130 -> 132 ;
133 [label="REACH <= 0.788\ngini = 0.266\nsamples = 86\nvalue = [22, 117]", fillcolor="#5eafea"] ;
67 -> 133 ;
134 [label="HEIGHT1 <= 0.1\ngini = 0.242\nsamples = 83\nvalue = [19, 116]", fillcolor="#59ade9"] ;
133 -> 134 ;
135 [label="gini = 0.5\nsamples = 8\nvalue = [7, 7]", fillcolor="#ffffff"] ;
134 -> 135 ;
136 [label="DOB <= 0.347\ngini = 0.179\nsamples = 75\nvalue = [12, 109]", fillcolor="#4fa8e8"] ;
134 -> 136 ;
137 [label="gini = 0.0\nsamples = 1\nvalue = [2, 0]", fillcolor="#e58139"] ;
136 -> 137 ;
138 [label="STANCE1 <= 0.5\ngini = 0.154\nsamples = 74\nvalue = [10, 109]", fillcolor="#4ba6e7"] ;
136 -> 138 ;
139 [label="TDAvg <= 0.017\ngini = 0.025\nsamples = 46\nvalue = [1, 77]", fillcolor="#3c9ee5"] ;
138 -> 139 ;
140 [label="gini = 0.219\nsamples = 5\nvalue = [1, 7]", fillcolor="#55abe9"] ;
139 -> 140 ;
141 [label="gini = 0.0\nsamples = 41\nvalue = [0, 70]", fillcolor="#399de5"] ;
139 -> 141 ;
142 [label="StrDef1 <= 0.555\ngini = 0.343\nsamples = 28\nvalue = [9, 32]", fillcolor="#71b9ec"] ;
138 -> 142 ;
143 [label="gini = 0.0\nsamples = 8\nvalue = [0, 13]", fillcolor="#399de5"] ;
142 -> 143 ;
144 [label="gini = 0.436\nsamples = 20\nvalue = [9, 19]", fillcolor="#97cbf1"] ;
142 -> 144 ;
145 [label="gini = 0.375\nsamples = 3\nvalue = [3, 1]", fillcolor="#eeab7b"] ;
133 -> 145 ;
146 [label="DOB1 <= 0.597\ngini = 0.298\nsamples = 1018\nvalue = [291, 1305]", fillcolor="#65b3eb"] ;
0 -> 146 [labeldistance=2.5, labelangle=-45, headlabel="False"] ;
147 [label="TDDef <= 0.605\ngini = 0.452\nsamples = 322\nvalue = [179, 339]", fillcolor="#a2d1f3"] ;
146 -> 147 ;
148 [label="DOB <= 0.736\ngini = 0.499\nsamples = 133\nvalue = [106, 115]", fillcolor="#f0f7fd"] ;
147 -> 148 ;
149 [label="TDAvg <= 0.095\ngini = 0.485\nsamples = 99\nvalue = [97, 68]", fillcolor="#f7d9c4"] ;
148 -> 149 ;
150 [label="TDDef <= 0.41\ngini = 0.472\nsamples = 36\nvalue = [21, 34]", fillcolor="#b3daf5"] ;
149 -> 150 ;
151 [label="gini = 0.346\nsamples = 9\nvalue = [7, 2]", fillcolor="#eca572"] ;
150 -> 151 ;
152 [label="HEIGHT <= 0.725\ngini = 0.423\nsamples = 27\nvalue = [14, 32]", fillcolor="#90c8f0"] ;
150 -> 152 ;
153 [label="gini = 0.48\nsamples = 20\nvalue = [14, 21]", fillcolor="#bddef6"] ;
152 -> 153 ;
154 [label="gini = 0.0\nsamples = 7\nvalue = [0, 11]", fillcolor="#399de5"] ;
152 -> 154 ;
155 [label="StrDef1 <= 0.602\ngini = 0.427\nsamples = 63\nvalue = [76, 34]", fillcolor="#f1b992"] ;
149 -> 155 ;
156 [label="gini = 0.5\nsamples = 21\nvalue = [18, 19]", fillcolor="#f5fafe"] ;
155 -> 156 ;
157 [label="SApM1 <= 0.121\ngini = 0.327\nsamples = 42\nvalue = [58, 15]", fillcolor="#eca26c"] ;
155 -> 157 ;
158 [label="gini = 0.045\nsamples = 23\nvalue = [42, 1]", fillcolor="#e6843e"] ;
157 -> 158 ;
159 [label="gini = 0.498\nsamples = 19\nvalue = [16, 14]", fillcolor="#fcefe6"] ;
157 -> 159 ;
160 [label="SubAvg <= 0.182\ngini = 0.27\nsamples = 34\nvalue = [9, 47]", fillcolor="#5fb0ea"] ;
148 -> 160 ;
161 [label="SApM1 <= 0.065\ngini = 0.091\nsamples = 25\nvalue = [2, 40]", fillcolor="#43a2e6"] ;
160 -> 161 ;
162 [label="gini = 0.0\nsamples = 1\nvalue = [1, 0]", fillcolor="#e58139"] ;
161 -> 162 ;
163 [label="gini = 0.048\nsamples = 24\nvalue = [1, 40]", fillcolor="#3e9fe6"] ;
161 -> 163 ;
164 [label="gini = 0.5\nsamples = 9\nvalue = [7, 7]", fillcolor="#ffffff"] ;
160 -> 164 ;
165 [label="SubAvg1 <= 0.05\ngini = 0.371\nsamples = 189\nvalue = [73, 224]", fillcolor="#7abded"] ;
147 -> 165 ;
166 [label="TDDef <= 0.765\ngini = 0.337\nsamples = 172\nvalue = [58, 212]", fillcolor="#6fb8ec"] ;
165 -> 166 ;
167 [label="DOB <= 0.681\ngini = 0.226\nsamples = 88\nvalue = [17, 114]", fillcolor="#57ace9"] ;
166 -> 167 ;
168 [label="TDAcc1 <= 0.57\ngini = 0.413\nsamples = 39\nvalue = [16, 39]", fillcolor="#8ac5f0"] ;
167 -> 168 ;
169 [label="SubAvg <= 0.007\ngini = 0.353\nsamples = 34\nvalue = [11, 37]", fillcolor="#74baed"] ;
168 -> 169 ;
170 [label="gini = 0.469\nsamples = 6\nvalue = [5, 3]", fillcolor="#f5cdb0"] ;
169 -> 170 ;
171 [label="DOB <= 0.653\ngini = 0.255\nsamples = 28\nvalue = [6, 34]", fillcolor="#5caeea"] ;
169 -> 171 ;
172 [label="gini = 0.397\nsamples = 16\nvalue = [6, 16]", fillcolor="#83c2ef"] ;
171 -> 172 ;
173 [label="gini = 0.0\nsamples = 12\nvalue = [0, 18]", fillcolor="#399de5"] ;
171 -> 173 ;
174 [label="gini = 0.408\nsamples = 5\nvalue = [5, 2]", fillcolor="#efb388"] ;
168 -> 174 ;
175 [label="StrAcc1 <= 0.416\ngini = 0.026\nsamples = 49\nvalue = [1, 75]", fillcolor="#3c9ee5"] ;
167 -> 175 ;
176 [label="gini = 0.153\nsamples = 8\nvalue = [1, 11]", fillcolor="#4ba6e7"] ;
175 -> 176 ;
177 [label="gini = 0.0\nsamples = 41\nvalue = [0, 64]", fillcolor="#399de5"] ;
175 -> 177 ;
178 [label="SubAvg <= 0.047\ngini = 0.416\nsamples = 84\nvalue = [41, 98]", fillcolor="#8cc6f0"] ;
166 -> 178 ;
179 [label="REACH1 <= 0.521\ngini = 0.272\nsamples = 49\nvalue = [13, 67]", fillcolor="#5fb0ea"] ;
178 -> 179 ;
180 [label="gini = 0.0\nsamples = 21\nvalue = [0, 36]", fillcolor="#399de5"] ;
179 -> 180 ;
181 [label="TDDef <= 0.795\ngini = 0.416\nsamples = 28\nvalue = [13, 31]", fillcolor="#8cc6f0"] ;
179 -> 181 ;
182 [label="gini = 0.32\nsamples = 6\nvalue = [8, 2]", fillcolor="#eca06a"] ;
181 -> 182 ;
183 [label="gini = 0.251\nsamples = 22\nvalue = [5, 29]", fillcolor="#5baee9"] ;
181 -> 183 ;
184 [label="TDDef <= 0.835\ngini = 0.499\nsamples = 35\nvalue = [28, 31]", fillcolor="#ecf6fc"] ;
178 -> 184 ;
185 [label="gini = 0.353\nsamples = 19\nvalue = [8, 27]", fillcolor="#74baed"] ;
184 -> 185 ;
186 [label="gini = 0.278\nsamples = 16\nvalue = [20, 4]", fillcolor="#ea9a61"] ;
184 -> 186 ;
187 [label="gini = 0.494\nsamples = 17\nvalue = [15, 12]", fillcolor="#fae6d7"] ;
165 -> 187 ;
188 [label="DOB <= 0.653\ngini = 0.186\nsamples = 696\nvalue = [112, 966]", fillcolor="#50a8e8"] ;
146 -> 188 ;
189 [label="TDDef1 <= 0.775\ngini = 0.367\nsamples = 134\nvalue = [47, 147]", fillcolor="#78bced"] ;
188 -> 189 ;
190 [label="TDAcc <= 0.06\ngini = 0.257\nsamples = 97\nvalue = [20, 112]", fillcolor="#5caeea"] ;
189 -> 190 ;
191 [label="gini = 0.375\nsamples = 5\nvalue = [6, 2]", fillcolor="#eeab7b"] ;
190 -> 191 ;
192 [label="SubAvg1 <= 0.119\ngini = 0.2\nsamples = 92\nvalue = [14, 110]", fillcolor="#52a9e8"] ;
190 -> 192 ;
193 [label="StrAcc <= 0.386\ngini = 0.177\nsamples = 91\nvalue = [12, 110]", fillcolor="#4fa8e8"] ;
192 -> 193 ;
194 [label="gini = 0.444\nsamples = 15\nvalue = [7, 14]", fillcolor="#9ccef2"] ;
193 -> 194 ;
195 [label="HEIGHT1 <= 0.875\ngini = 0.094\nsamples = 76\nvalue = [5, 96]", fillcolor="#43a2e6"] ;
193 -> 195 ;
196 [label="TDAvg1 <= 0.371\ngini = 0.077\nsamples = 75\nvalue = [4, 96]", fillcolor="#41a1e6"] ;
195 -> 196 ;
197 [label="StrDef <= 0.424\ngini = 0.061\nsamples = 71\nvalue = [3, 92]", fillcolor="#3fa0e6"] ;
196 -> 197 ;
198 [label="gini = 0.5\nsamples = 2\nvalue = [1, 1]", fillcolor="#ffffff"] ;
197 -> 198 ;
199 [label="SubAvg <= 0.061\ngini = 0.042\nsamples = 69\nvalue = [2, 91]", fillcolor="#3d9fe6"] ;
197 -> 199 ;
200 [label="TDAvg <= 0.23\ngini = 0.081\nsamples = 32\nvalue = [2, 45]", fillcolor="#42a1e6"] ;
199 -> 200 ;
201 [label="SubAvg1 <= 0.06\ngini = 0.045\nsamples = 29\nvalue = [1, 42]", fillcolor="#3e9fe6"] ;
200 -> 201 ;
202 [label="gini = 0.0\nsamples = 28\nvalue = [0, 42]", fillcolor="#399de5"] ;
201 -> 202 ;
203 [label="gini = 0.0\nsamples = 1\nvalue = [1, 0]", fillcolor="#e58139"] ;
201 -> 203 ;
204 [label="gini = 0.375\nsamples = 3\nvalue = [1, 3]", fillcolor="#7bbeee"] ;
200 -> 204 ;
205 [label="gini = 0.0\nsamples = 37\nvalue = [0, 46]", fillcolor="#399de5"] ;
199 -> 205 ;
206 [label="gini = 0.32\nsamples = 4\nvalue = [1, 4]", fillcolor="#6ab6ec"] ;
196 -> 206 ;
207 [label="gini = 0.0\nsamples = 1\nvalue = [1, 0]", fillcolor="#e58139"] ;
195 -> 207 ;
208 [label="gini = 0.0\nsamples = 1\nvalue = [2, 0]", fillcolor="#e58139"] ;
192 -> 208 ;
209 [label="TDDef1 <= 0.905\ngini = 0.492\nsamples = 37\nvalue = [27, 35]", fillcolor="#d2e9f9"] ;
189 -> 209 ;
210 [label="SubAvg <= 0.047\ngini = 0.483\nsamples = 26\nvalue = [26, 18]", fillcolor="#f7d8c2"] ;
209 -> 210 ;
211 [label="gini = 0.363\nsamples = 16\nvalue = [5, 16]", fillcolor="#77bced"] ;
210 -> 211 ;
212 [label="gini = 0.159\nsamples = 10\nvalue = [21, 2]", fillcolor="#e78d4c"] ;
210 -> 212 ;
213 [label="gini = 0.105\nsamples = 11\nvalue = [1, 17]", fillcolor="#45a3e7"] ;
209 -> 213 ;
214 [label="DOB1 <= 0.681\ngini = 0.136\nsamples = 562\nvalue = [65, 819]", fillcolor="#49a5e7"] ;
188 -> 214 ;
215 [label="TDAvg1 <= 0.432\ngini = 0.211\nsamples = 204\nvalue = [39, 286]", fillcolor="#54aae9"] ;
214 -> 215 ;
216 [label="DOB1 <= 0.625\ngini = 0.149\nsamples = 181\nvalue = [23, 261]", fillcolor="#4aa6e7"] ;
215 -> 216 ;
217 [label="TDAvg1 <= 0.268\ngini = 0.023\nsamples = 55\nvalue = [1, 85]", fillcolor="#3b9ee5"] ;
216 -> 217 ;
218 [label="gini = 0.0\nsamples = 48\nvalue = [0, 76]", fillcolor="#399de5"] ;
217 -> 218 ;
219 [label="gini = 0.18\nsamples = 7\nvalue = [1, 9]", fillcolor="#4fa8e8"] ;
217 -> 219 ;
220 [label="SApM <= 0.338\ngini = 0.198\nsamples = 126\nvalue = [22, 176]", fillcolor="#52a9e8"] ;
216 -> 220 ;
221 [label="SubAvg <= 0.182\ngini = 0.119\nsamples = 91\nvalue = [9, 133]", fillcolor="#46a4e7"] ;
220 -> 221 ;
222 [label="StrDef <= 0.5\ngini = 0.076\nsamples = 78\nvalue = [5, 122]", fillcolor="#41a1e6"] ;
221 -> 222 ;
223 [label="gini = 0.198\nsamples = 18\nvalue = [3, 24]", fillcolor="#52a9e8"] ;
222 -> 223 ;
224 [label="TDAvg1 <= 0.032\ngini = 0.039\nsamples = 60\nvalue = [2, 98]", fillcolor="#3d9fe6"] ;
222 -> 224 ;
225 [label="gini = 0.165\nsamples = 7\nvalue = [1, 10]", fillcolor="#4da7e8"] ;
224 -> 225 ;
226 [label="SLpM1 <= 0.414\ngini = 0.022\nsamples = 53\nvalue = [1, 88]", fillcolor="#3b9ee5"] ;
224 -> 226 ;
227 [label="gini = 0.0\nsamples = 48\nvalue = [0, 84]", fillcolor="#399de5"] ;
226 -> 227 ;
228 [label="gini = 0.32\nsamples = 5\nvalue = [1, 4]", fillcolor="#6ab6ec"] ;
226 -> 228 ;
229 [label="gini = 0.391\nsamples = 13\nvalue = [4, 11]", fillcolor="#81c1ee"] ;
221 -> 229 ;
230 [label="TDDef <= 0.765\ngini = 0.357\nsamples = 35\nvalue = [13, 43]", fillcolor="#75bbed"] ;
220 -> 230 ;
231 [label="gini = 0.45\nsamples = 23\nvalue = [13, 25]", fillcolor="#a0d0f3"] ;
230 -> 231 ;
232 [label="gini = 0.0\nsamples = 12\nvalue = [0, 18]", fillcolor="#399de5"] ;
230 -> 232 ;
233 [label="gini = 0.476\nsamples = 23\nvalue = [16, 25]", fillcolor="#b8dcf6"] ;
215 -> 233 ;
234 [label="TDAvg1 <= 0.201\ngini = 0.089\nsamples = 358\nvalue = [26, 533]", fillcolor="#43a2e6"] ;
214 -> 234 ;
235 [label="TDAvg <= 0.274\ngini = 0.058\nsamples = 251\nvalue = [12, 392]", fillcolor="#3fa0e6"] ;
234 -> 235 ;
236 [label="REACH1 <= 0.479\ngini = 0.025\nsamples = 197\nvalue = [4, 312]", fillcolor="#3c9ee5"] ;
235 -> 236 ;
237 [label="gini = 0.0\nsamples = 100\nvalue = [0, 177]", fillcolor="#399de5"] ;
236 -> 237 ;
238 [label="StrDef <= 0.636\ngini = 0.056\nsamples = 97\nvalue = [4, 135]", fillcolor="#3fa0e6"] ;
236 -> 238 ;
239 [label="SLpM <= 0.095\ngini = 0.019\nsamples = 72\nvalue = [1, 106]", fillcolor="#3b9ee5"] ;
238 -> 239 ;
240 [label="gini = 0.444\nsamples = 3\nvalue = [1, 2]", fillcolor="#9ccef2"] ;
239 -> 240 ;
241 [label="gini = 0.0\nsamples = 69\nvalue = [0, 104]", fillcolor="#399de5"] ;
239 -> 241 ;
242 [label="SApM <= 0.367\ngini = 0.17\nsamples = 25\nvalue = [3, 29]", fillcolor="#4da7e8"] ;
238 -> 242 ;
243 [label="gini = 0.124\nsamples = 23\nvalue = [2, 28]", fillcolor="#47a4e7"] ;
242 -> 243 ;
244 [label="gini = 0.5\nsamples = 2\nvalue = [1, 1]", fillcolor="#ffffff"] ;
242 -> 244 ;
245 [label="TDAcc1 <= 0.765\ngini = 0.165\nsamples = 54\nvalue = [8, 80]", fillcolor="#4da7e8"] ;
235 -> 245 ;
246 [label="HEIGHT1 <= 0.625\ngini = 0.091\nsamples = 52\nvalue = [4, 80]", fillcolor="#43a2e6"] ;
245 -> 246 ;
247 [label="gini = 0.0\nsamples = 43\nvalue = [0, 68]", fillcolor="#399de5"] ;
246 -> 247 ;
248 [label="gini = 0.375\nsamples = 9\nvalue = [4, 12]", fillcolor="#7bbeee"] ;
246 -> 248 ;
249 [label="gini = 0.0\nsamples = 2\nvalue = [4, 0]", fillcolor="#e58139"] ;
245 -> 249 ;
250 [label="SubAvg1 <= 0.083\ngini = 0.164\nsamples = 107\nvalue = [14, 141]", fillcolor="#4da7e8"] ;
234 -> 250 ;
251 [label="TDAvg <= 0.636\ngini = 0.145\nsamples = 105\nvalue = [12, 140]", fillcolor="#4aa5e7"] ;
250 -> 251 ;
252 [label="STANCE1 <= 0.833\ngini = 0.135\nsamples = 104\nvalue = [11, 140]", fillcolor="#49a5e7"] ;
251 -> 252 ;
253 [label="DOB <= 0.736\ngini = 0.093\nsamples = 98\nvalue = [7, 136]", fillcolor="#43a2e6"] ;
252 -> 253 ;
254 [label="SLpM <= 0.162\ngini = 0.187\nsamples = 46\nvalue = [7, 60]", fillcolor="#50a8e8"] ;
253 -> 254 ;
255 [label="gini = 0.459\nsamples = 11\nvalue = [5, 9]", fillcolor="#a7d3f3"] ;
254 -> 255 ;
256 [label="SApM <= 0.265\ngini = 0.073\nsamples = 35\nvalue = [2, 51]", fillcolor="#41a1e6"] ;
254 -> 256 ;
257 [label="gini = 0.219\nsamples = 14\nvalue = [2, 14]", fillcolor="#55abe9"] ;
256 -> 257 ;
258 [label="gini = 0.0\nsamples = 21\nvalue = [0, 37]", fillcolor="#399de5"] ;
256 -> 258 ;
259 [label="gini = 0.0\nsamples = 52\nvalue = [0, 76]", fillcolor="#399de5"] ;
253 -> 259 ;
260 [label="gini = 0.5\nsamples = 6\nvalue = [4, 4]", fillcolor="#ffffff"] ;
252 -> 260 ;
261 [label="gini = 0.0\nsamples = 1\nvalue = [1, 0]", fillcolor="#e58139"] ;
251 -> 261 ;
262 [label="gini = 0.444\nsamples = 2\nvalue = [2, 1]", fillcolor="#f2c09c"] ;
250 -> 262 ;
}